<?xml version="1.0"?>
<opencv_storage>
<myhaar type_id="opencv-haar-classifier">
  <size>
    24 24</size>
  <stages>
    <_>
      <trees>
        <_>
          <_>
            <feature>
              <rects>
                <_>
                  0 1 24 9 -1.</_>
                <_>
                  8 4 8 3 9.</_></rects>
              <tilted>0</tilted></feature>
            <threshold>0.2696709036827087</threshold>
            <left_val>-1.</left_val>
            <right_val>0.8779339194297791</right_val></_></_></trees>
      <stage_threshold>0.8779339194297791</stage_threshold>
      <parent>-1</parent>
      <next>-1</next></_>
    <_>
      <trees>
        <_>
          <_>
            <feature>
              <rects>
                <_>
                  1 5 22 18 -1.</_>
                <_>
                  1 11 22 6 3.</_></rects>
              <tilted>0</tilted></feature>
            <threshold>0.1384866982698441</threshold>
            <left_val>-1.</left_val>
            <right_val>0.8433178067207336</right_val></_></_></trees>
      <stage_threshold>0.8433178067207336</stage_threshold>
      <parent>0</parent>
      <next>-1</next></_>
    <_>
      <trees>
        <_>
          <_>
            <feature>
              <rects>
                <_>
                  3 22 13 2 -1.</_>
                <_>
                  3 23 13 1 2.</_></rects>
              <tilted>0</tilted></feature>
            <threshold>-5.5934567935764790e-003</threshold>
            <left_val>0.9417474865913391</left_val>
            <right_val>-1.</right_val></_></_></trees>
      <stage_threshold>0.9417474865913391</stage_threshold>
      <parent>1</parent>
      <next>-1</next></_>
    <_>
      <trees>
        <_>
          <_>
            <feature>
              <rects>
                <_>
                  12 6 4 5 -1.</_>
                <_>
                  13 7 2 5 2.</_></rects>
              <tilted>1</tilted></feature>
            <threshold>7.5712790712714195e-003</threshold>
            <left_val>-1.</left_val>
            <right_val>0.8018016815185547</right_val></_></_></trees>
      <stage_threshold>0.8018016815185547</stage_threshold>
      <parent>2</parent>
      <next>-1</next></_>
    <_>
      <trees>
        <_>
          <_>
            <feature>
              <rects>
                <_>
                  0 3 8 15 -1.</_>
                <_>
                  2 3 4 15 2.</_></rects>
              <tilted>0</tilted></feature>
            <threshold>0.0307069104164839</threshold>
            <left_val>-1.</left_val>
            <right_val>0.8018016815185547</right_val></_></_></trees>
      <stage_threshold>0.8018016815185547</stage_threshold>
      <parent>3</parent>
      <next>-1</next></_>
    <_>
      <trees>
        <_>
          <_>
            <feature>
              <rects>
                <_>
                  9 5 2 5 -1.</_>
                <_>
                  9 5 1 5 2.</_></rects>
              <tilted>1</tilted></feature>
            <threshold>4.1336370632052422e-003</threshold>
            <left_val>-1.</left_val>
            <right_val>0.9047616720199585</right_val></_></_>
        <_>
          <_>
            <feature>
              <rects>
                <_>
                  9 19 6 4 -1.</_>
                <_>
                  9 21 6 2 2.</_></rects>
              <tilted>0</tilted></feature>
            <threshold>1.8341910617891699e-004</threshold>
            <left_val>-1.</left_val>
            <right_val>0.7979769110679627</right_val></_></_>
        <_>
          <_>
            <feature>
              <rects>
                <_>
                  0 0 14 4 -1.</_>
                <_>
                  0 2 14 2 2.</_></rects>
              <tilted>0</tilted></feature>
            <threshold>1.6370579833164811e-003</threshold>
            <left_val>-1.</left_val>
            <right_val>1.</right_val></_></_>
        <_>
          <_>
            <feature>
              <rects>
                <_>
                  22 0 2 1 -1.</_>
                <_>
                  22 0 1 1 2.</_></rects>
              <tilted>0</tilted></feature>
            <threshold>0.</threshold>
            <left_val>0.</left_val>
            <right_val>-1.</right_val></_></_>
        <_>
          <_>
            <feature>
              <rects>
                <_>
                  0 0 11 2 -1.</_>
                <_>
                  0 1 11 1 2.</_></rects>
              <tilted>0</tilted></feature>
            <threshold>6.4971689425874501e-005</threshold>
            <left_val>-1.</left_val>
            <right_val>1.0000020265579224</right_val></_></_>
        <_>
          <_>
            <feature>
              <rects>
                <_>
                  22 0 2 1 -1.</_>
                <_>
                  22 0 1 1 2.</_></rects>
              <tilted>0</tilted></feature>
            <threshold>0.</threshold>
            <left_val>0.</left_val>
            <right_val>-1.</right_val></_></_>
        <_>
          <_>
            <feature>
              <rects>
                <_>
                  0 0 16 20 -1.</_>
                <_>
                  4 0 8 20 2.</_></rects>
              <tilted>0</tilted></feature>
            <threshold>0.0338664911687374</threshold>
            <left_val>-1.</left_val>
            <right_val>1.0000020265579224</right_val></_></_>
        <_>
          <_>
            <feature>
              <rects>
                <_>
                  22 0 2 1 -1.</_>
                <_>
                  22 0 1 1 2.</_></rects>
              <tilted>0</tilted></feature>
            <threshold>0.</threshold>
            <left_val>0.</left_val>
            <right_val>-1.</right_val></_></_>
        <_>
          <_>
            <feature>
              <rects>
                <_>
                  1 10 15 13 -1.</_>
                <_>
                  6 10 5 13 3.</_></rects>
              <tilted>0</tilted></feature>
            <threshold>0.0290914401412010</threshold>
            <left_val>-1.</left_val>
            <right_val>1.0000020265579224</right_val></_></_>
        <_>
          <_>
            <feature>
              <rects>
                <_>
                  22 0 2 1 -1.</_>
                <_>
                  22 0 1 1 2.</_></rects>
              <tilted>0</tilted></feature>
            <threshold>0.</threshold>
            <left_val>0.</left_val>
            <right_val>-1.</right_val></_></_>
        <_>
          <_>
            <feature>
              <rects>
                <_>
                  0 0 10 14 -1.</_>
                <_>
                  0 0 5 7 2.</_>
                <_>
                  5 7 5 7 2.</_></rects>
              <tilted>0</tilted></feature>
            <threshold>-0.0128806401044130</threshold>
            <left_val>1.</left_val>
            <right_val>-1.</right_val></_></_></trees>
      <stage_threshold>2.7027399539947510</stage_threshold>
      <parent>4</parent>
      <next>-1</next></_></stages></myhaar>
</opencv_storage>
